digraph Tree {
node [shape=box, style="rounded", color="black", fontname="helvetica"] ;
edge [fontname="helvetica"] ;
0 [label="nitrite_ppm_imp <= 2.5\nsquared_error = 6087.7\nsamples = 62541\nvalue = 312.5"] ;
1 [label="nitrate_ppm_imp <= 3.3\nsquared_error = 6014.1\nsamples = 62257\nvalue = 312.0"] ;
0 -> 1 [labeldistance=2.5, labelangle=45, headlabel="True"] ;
2 [label="ammonia_ppm_imp <= 9.0\nsquared_error = 5660.5\nsamples = 57192\nvalue = 309.1"] ;
1 -> 2 ;
3 [label="squared_error = 5665.7\nsamples = 56948\nvalue = 308.9"] ;
2 -> 3 ;
4 [label="squared_error = 2210.6\nsamples = 244\nvalue = 356.1"] ;
2 -> 4 ;
5 [label="int_five <= 1.6\nsquared_error = 8836.6\nsamples = 5065\nvalue = 344.8"] ;
1 -> 5 ;
6 [label="squared_error = 8827.3\nsamples = 5063\nvalue = 344.7"] ;
5 -> 6 ;
7 [label="squared_error = 1.8\nsamples = 2\nvalue = 524.5"] ;
5 -> 7 ;
8 [label="nitrate_ppm_imp <= 8.8\nsquared_error = 8326.4\nsamples = 284\nvalue = 430.1"] ;
0 -> 8 [labeldistance=2.5, labelangle=-45, headlabel="False"] ;
9 [label="ammonia_ppm_imp <= 1.3\nsquared_error = 7566.8\nsamples = 194\nvalue = 395.3"] ;
8 -> 9 ;
10 [label="squared_error = 4020.0\nsamples = 119\nvalue = 348.3"] ;
9 -> 10 ;
11 [label="squared_error = 4102.8\nsamples = 75\nvalue = 470.0"] ;
9 -> 11 ;
12 [label="nitrate_ppm_imp <= 15.6\nsquared_error = 1753.9\nsamples = 90\nvalue = 505.0"] ;
8 -> 12 ;
13 [label="squared_error = 149.8\nsamples = 18\nvalue = 522.4"] ;
12 -> 13 ;
14 [label="squared_error = 2059.4\nsamples = 72\nvalue = 500.6"] ;
12 -> 14 ;
}